digraph Tree {
node [shape=box, style="filled, rounded", color="black", fontname=helvetica] ;
edge [fontname=helvetica] ;
0 [label="petal length (cm) <= 2.45\ngini = 0.67\nsamples = 101\nvalue = [52, 49, 49]\nclass = setosa", fillcolor="#e5813908"] ;
1 [label="gini = 0.0\nsamples = 33\nvalue = [52, 0, 0]\nclass = setosa", fillcolor="#e58139ff"] ;
0 -> 1 [labeldistance=2.5, labelangle=45, headlabel="True"] ;
2 [label="petal width (cm) <= 1.65\ngini = 0.5\nsamples = 68\nvalue = [0, 49, 49]\nclass = versicolor", fillcolor="#39e58100"] ;
0 -> 2 [labeldistance=2.5, labelangle=-45, headlabel="False"] ;
3 [label="petal length (cm) <= 5.45\ngini = 0.04\nsamples = 34\nvalue = [0, 48, 1]\nclass = versicolor", fillcolor="#39e581fa"] ;
2 -> 3 ;
4 [label="gini = 0.0\nsamples = 33\nvalue = [0, 48, 0]\nclass = versicolor", fillcolor="#39e581ff"] ;
3 -> 4 ;
5 [label="gini = 0.0\nsamples = 1\nvalue = [0, 0, 1]\nclass = virginica", fillcolor="#8139e5ff"] ;
3 -> 5 ;
6 [label="petal width (cm) <= 1.85\ngini = 0.04\nsamples = 34\nvalue = [0, 1, 48]\nclass = virginica", fillcolor="#8139e5fa"] ;
2 -> 6 ;
7 [label="petal length (cm) <= 4.85\ngini = 0.17\nsamples = 8\nvalue = [0, 1, 10]\nclass = virginica", fillcolor="#8139e5e6"] ;
6 -> 7 ;
8 [label="sepal width (cm) <= 3.1\ngini = 0.38\nsamples = 3\nvalue = [0, 1, 3]\nclass = virginica", fillcolor="#8139e5aa"] ;
7 -> 8 ;
9 [label="gini = 0.0\nsamples = 2\nvalue = [0, 0, 3]\nclass = virginica", fillcolor="#8139e5ff"] ;
8 -> 9 ;
10 [label="gini = 0.0\nsamples = 1\nvalue = [0, 1, 0]\nclass = versicolor", fillcolor="#39e581ff"] ;
8 -> 10 ;
11 [label="gini = 0.0\nsamples = 5\nvalue = [0, 0, 7]\nclass = virginica", fillcolor="#8139e5ff"] ;
7 -> 11 ;
12 [label="gini = 0.0\nsamples = 26\nvalue = [0, 0, 38]\nclass = virginica", fillcolor="#8139e5ff"] ;
6 -> 12 ;
}